digraph Tree {
node [shape=box] ;
0 [label="Age At Release _55 and Older <= 0.5\ngini = 0.4328\nsamples = 17060\nvalue = [11656, 5404]"] ;
1 [label="Age At Release _45-54 <= 0.5\ngini = 0.4375\nsamples = 16252\nvalue = [10999, 5253]"] ;
0 -> 1 [labeldistance=2.5, labelangle=45, headlabel="True"] ;
2 [label="Sex_F <= 0.5\ngini = 0.4454\nsamples = 13372\nvalue = [8896, 4476]"] ;
1 -> 2 ;
3 [label="gini = 0.4504\nsamples = 11728\nvalue = [7711, 4017]"] ;
2 -> 3 ;
4 [label="gini = 0.4025\nsamples = 1644\nvalue = [1185, 459]"] ;
2 -> 4 ;
5 [label="Sex_F <= 0.5\ngini = 0.394\nsamples = 2880\nvalue = [2103, 777]"] ;
1 -> 5 ;
6 [label="gini = 0.3995\nsamples = 2487\nvalue = [1801, 686]"] ;
5 -> 6 ;
7 [label="gini = 0.3559\nsamples = 393\nvalue = [302, 91]"] ;
5 -> 7 ;
8 [label="Sex_F <= 0.5\ngini = 0.3039\nsamples = 808\nvalue = [657, 151]"] ;
0 -> 8 [labeldistance=2.5, labelangle=-45, headlabel="False"] ;
9 [label="gini = 0.3089\nsamples = 744\nvalue = [602, 142]"] ;
8 -> 9 ;
10 [label="gini = 0.2417\nsamples = 64\nvalue = [55, 9]"] ;
8 -> 10 ;
}